/*!
 * The following copyright notice may not be removed under any circumstances.
 * 
 * Copyright:
 * 2004 Tup Wanders
 * 
 * Manufacturer:
 * Free Font. Do not sell.
 * 
 * Designer:
 * Tup Wanders
 */
Raphael.registerFont({"w":629,"face":{"font-family":"Aaargh","font-weight":400,"font-stretch":"normal","units-per-em":"1000","panose-1":"0 0 4 0 0 0 0 0 0 0","ascent":"800","descent":"-200","x-height":"14","cap-height":"1","bbox":"-34 -967 4283 348","underline-thickness":"20","underline-position":"-123","unicode-range":"U+0020-U+20AC"},"glyphs":{" ":{"w":467},"!":{"d":"110,-800r0,651r50,0r0,-651r-50,0xm99,-60r70,0r0,60r-70,0r0,-60","w":262},"\"":{"d":"55,-800r0,111r52,0r8,-111r-60,0xm145,-800r0,111r52,0r8,-111r-60,0","w":257},"#":{"d":"571,-427r0,-50r-118,0r77,-321r-51,0r-77,321r-118,0r77,-321r-51,0r-77,321r-150,0r0,50r138,0r-21,86r-117,0r0,50r105,0r-70,294r51,0r71,-294r118,0r-71,294r52,0r70,-294r162,0r0,-50r-150,0r21,-86r129,0xm370,-341r-118,0r20,-86r118,0","w":650},"$":{"d":"278,7v119,-15,184,-81,184,-205v0,-37,-15,-72,-46,-105v-23,-25,-69,-63,-138,-116r0,-344v57,7,106,28,147,64r0,-52v-45,-33,-94,-52,-147,-57r0,-48r-49,0r0,48v-107,9,-179,78,-179,199v0,70,46,130,108,167v33,20,56,38,71,49r0,355v-60,-5,-121,-29,-183,-70r0,54v51,40,112,61,183,63r0,53r49,0r0,-55xm229,-455v-67,-52,-116,-82,-127,-151v7,-89,52,-150,127,-157r0,308xm278,-356v70,59,119,85,132,166v-9,88,-58,144,-132,152r0,-318","w":511},"%":{"d":"275,-692v0,-56,-48,-104,-104,-104v-56,0,-104,48,-104,104v0,57,48,105,104,105v56,0,104,-48,104,-105xm232,-692v0,33,-28,61,-61,61v-33,0,-61,-28,-61,-61v0,-32,29,-60,61,-60v32,0,61,28,61,60xm554,-91v0,-57,-48,-105,-104,-105v-57,0,-105,48,-105,105v0,56,48,104,105,104v56,0,104,-48,104,-104xm510,-91v0,32,-28,60,-60,60v-33,0,-61,-27,-61,-60v0,-34,27,-61,61,-61v33,0,60,28,60,61xm176,1r332,-812r-54,0r-333,812r55,0","w":612},"&":{"d":"45,-203v0,130,105,223,245,219v122,-3,171,-43,247,-111r88,94r62,0r-125,-132v59,-82,98,-180,103,-278r-50,0v-13,115,-31,170,-84,240r-224,-244v108,-59,191,-97,194,-230v2,-101,-83,-173,-187,-173v-139,0,-253,144,-176,273v13,22,58,77,98,116v-103,51,-191,97,-191,226xm311,-777v87,0,146,51,143,137v-4,116,-75,140,-176,189v-39,-49,-116,-112,-118,-185v-2,-84,66,-141,151,-141xm294,-24v-118,2,-202,-67,-202,-177v0,-113,76,-142,174,-187r238,260v-55,60,-114,102,-210,104","w":727},"'":{"d":"78,-800r0,111r52,0r8,-111r-60,0","w":217},"(":{"d":"142,-457v0,193,46,390,118,492r-48,16v-97,-142,-146,-439,-106,-690v22,-137,58,-246,111,-327r43,18v-74,107,-118,271,-118,491","w":338},")":{"d":"208,-457v0,193,-46,390,-118,492r48,16v97,-142,146,-439,106,-690v-22,-137,-58,-246,-111,-327r-43,18v74,107,118,271,118,491","w":338},"*":{"d":"263,-696r-15,-46r-66,21r0,-72r-49,0r0,68r-62,-20r-15,47r62,20r-40,55r39,29r41,-56r40,55r40,-28r-38,-52","w":315},"+":{"d":"404,-291r-352,0r0,-49r352,0r0,49xm253,-492r0,352r-50,0r0,-352r50,0","w":459},",":{"d":"139,0v-16,1,-36,-3,-50,0r50,0xm69,-70r70,0v4,92,-2,137,-74,174r-18,-41v28,-15,42,-36,42,-63r-20,0r0,-70","w":210},"-":{"d":"322,-291r-262,0r0,-49r262,0r0,49","w":377},"\u2010":{"d":"322,-291r-262,0r0,-49r262,0r0,49","w":377},".":{"d":"95,-70r70,0r0,70r-70,0r0,-70","w":262},"\/":{"d":"128,3r220,-917r-51,0r-220,917r51,0","w":429},"0":{"d":"583,-289v0,-153,-122,-302,-266,-302v-144,0,-266,150,-266,302v0,176,100,302,266,302v173,0,266,-121,266,-302xm533,-289v0,142,-82,252,-215,252v-138,0,-216,-109,-216,-252v0,-125,99,-252,216,-252v117,0,215,127,215,252","w":644},"1":{"d":"224,0r0,-579r-51,0r-133,92v11,12,21,25,32,38v1,-1,34,-24,101,-71r0,520r51,0","w":364},"2":{"d":"391,-351v68,-113,-17,-245,-147,-240v-108,4,-160,52,-181,148v17,2,36,4,55,6v6,-64,54,-114,123,-114v67,0,123,48,123,115v0,48,-34,107,-102,178r-207,216r0,42r364,0r0,-44v-13,-3,-90,-3,-232,0r-73,2v85,-93,217,-208,277,-309","w":492},"3":{"d":"37,137v230,41,391,-21,383,-267v-3,-84,-36,-142,-111,-171r0,-4v65,-27,97,-73,97,-137v-1,-99,-60,-146,-160,-146v-95,0,-157,39,-186,117v1,1,18,7,49,19v21,-59,67,-89,138,-89v71,0,106,34,106,102v0,86,-62,115,-161,108r0,54v110,-12,175,50,179,155v8,204,-134,247,-325,210","w":492},"4":{"d":"472,-90r-84,0r0,-489r-78,0v0,1,-92,159,-276,475r0,54r305,0r0,169r49,0r0,-169r84,0r0,-40xm340,-541r-2,450r-262,0r252,-426v3,-5,4,-18,12,-24","w":510},"5":{"d":"15,137v230,40,391,-20,383,-267v-4,-121,-69,-196,-199,-201v-20,-1,-48,-1,-84,-1r5,-206r248,0r0,-42r-293,0r-8,301v96,5,201,-13,246,47v21,28,33,64,35,110v11,205,-133,246,-324,210","w":447},"6":{"d":"430,-408v-82,-107,-237,-110,-321,0v6,-157,84,-264,241,-256v32,1,73,7,123,18r11,-48v-119,-29,-236,-27,-313,29v-106,77,-113,238,-121,410v-7,144,72,251,205,257v144,6,225,-92,230,-234v3,-67,-16,-124,-55,-176xm390,-374v95,122,20,324,-132,324v-158,0,-199,-234,-98,-336v72,-72,170,-66,230,12","w":533},"7":{"d":"38,-580r0,48r357,0r-332,668r55,0r333,-668r0,-48r-413,0","w":489},"8":{"d":"354,-415v65,-48,80,-184,20,-256v-53,-64,-140,-75,-207,-18v-77,66,-78,225,5,277v-57,34,-101,103,-106,186v-9,132,66,225,186,234v175,13,255,-181,184,-334v-18,-39,-46,-68,-82,-89xm274,-440v-113,13,-143,-135,-78,-202v43,-44,102,-40,138,7v52,69,16,186,-60,195xm370,-328v80,105,20,280,-115,280v-144,0,-172,-219,-74,-300v64,-52,141,-43,189,20","w":525},"9":{"d":"471,-152v6,-136,24,-259,-49,-347v-79,-96,-211,-107,-304,-17v-86,84,-96,255,-24,352v70,94,255,104,328,7v-11,147,-88,252,-241,243v-32,-1,-73,-7,-122,-18r-12,48v119,29,238,30,313,-29v67,-53,106,-133,111,-239xm374,-188v-62,68,-188,60,-240,-11v-55,-76,-48,-211,19,-277v72,-72,170,-66,231,12v61,79,51,210,-10,276","w":525},":":{"d":"99,-70r70,0r0,70r-70,0r0,-70xm99,-578r70,0r0,70r-70,0r0,-70","w":262},";":{"d":"89,-578r70,0r0,70r-70,0r0,-70xm159,0v-16,1,-36,-3,-50,0r50,0xm89,-70r70,0v4,92,-2,137,-74,174r-18,-41v28,-15,42,-36,42,-63r-20,0r0,-70","w":262},"<":{"d":"428,-800r-62,0r-285,402r283,398r61,0r-283,-398","w":515},"=":{"d":"403,-350r-352,0r0,-49r352,0r0,49xm403,-215r-352,0r0,-49r352,0r0,49","w":459},">":{"d":"81,-800r61,0r286,402r-284,398r-61,0r283,-398","w":515},"?":{"d":"175,-70r70,0r0,70r-70,0r0,-70xm402,-616v2,-112,-76,-184,-189,-183v-103,0,-167,41,-193,123v11,3,26,8,45,15v29,-68,55,-91,145,-93v89,-1,146,48,144,134v-2,93,-32,100,-89,169v-57,69,-83,62,-83,145r0,154r49,0v3,-68,-10,-162,14,-207v13,-25,118,-125,133,-156v14,-29,24,-62,24,-101","w":461},"@":{"d":"226,-420v-19,113,48,214,150,214v43,0,80,-16,113,-49r0,38r246,-1v104,-275,-60,-595,-333,-595v-212,0,-347,198,-347,420v0,221,135,416,347,416v98,0,181,-36,250,-108r-51,-20v-55,55,-121,82,-199,82v-186,0,-296,-175,-296,-371v0,-195,110,-370,296,-370v227,0,368,262,294,503r-154,0r0,-315v-97,-6,-192,-26,-252,34v-33,33,-56,72,-64,122xm278,-383v0,-85,51,-152,130,-150v13,1,40,2,81,5r1,143r-1,-4v1,67,-50,131,-115,131v-52,0,-96,-59,-96,-125","w":820},"A":{"d":"588,0r53,0r-288,-798r-52,0r-281,798r53,0r100,-283r313,0xm190,-333r137,-390r141,390r-278,0","w":662},"B":{"d":"512,-71v54,-72,64,-240,-10,-307v-31,-28,-67,-52,-112,-66v112,-45,130,-243,19,-317v-80,-53,-230,-48,-339,-38r1,799v160,26,372,21,441,-71xm120,-761v92,-3,187,-6,249,34v42,27,66,58,68,97v6,113,-64,170,-211,170r-106,0r0,-301xm510,-246v14,210,-181,220,-390,203r0,-367v121,4,238,-16,315,40v46,33,72,73,75,124","w":601},"C":{"d":"232,-716v78,-56,179,-48,316,-34r0,-50v-150,-15,-270,-12,-354,45v-115,79,-151,199,-144,392v6,167,41,249,144,323v82,59,207,62,354,45r0,-50v-138,14,-236,22,-316,-33v-104,-73,-131,-167,-131,-344v0,-157,34,-224,131,-294","w":604},"D":{"d":"462,-755v-81,-58,-244,-54,-382,-46r1,801v152,14,290,13,381,-45v115,-74,162,-199,154,-389v-7,-167,-50,-246,-154,-321xm565,-425v10,245,-81,377,-315,385v-26,0,-66,-2,-120,-5r0,-709v128,-11,224,-10,296,37v99,65,133,138,139,292","w":671},"E":{"d":"130,-748r351,0r0,-50r-401,0r0,798r400,0r0,-49r-350,1r0,-362r351,0r0,-50r-351,0r0,-288","w":532},"F":{"d":"130,-748r351,0r0,-50r-401,0r0,798r50,0r0,-410r351,0r0,-50r-351,0r0,-288","w":530},"G":{"d":"615,-407r-254,0r0,50r202,0r0,312v-121,7,-247,12,-318,-39v-104,-75,-134,-166,-134,-340v0,-156,36,-223,134,-291v80,-56,182,-46,323,-34r0,-49v-152,-15,-276,-12,-362,45v-117,77,-155,195,-148,388v6,168,47,242,148,320v78,60,280,57,409,46r0,-408","w":688},"H":{"d":"538,-797r0,337r-403,0r0,-337r-50,0r0,797r50,0r0,-410r403,0r0,410r49,0r0,-797r-49,0","w":672},"I":{"d":"110,-800r0,801r50,0r0,-801r-50,0","w":262},"J":{"d":"-19,120v159,-14,191,-120,191,-303r0,-616r-51,0v1,74,5,278,0,613v-3,166,-20,242,-140,260r0,46","w":282},"K":{"d":"190,-436r408,-362r-75,0r-381,338r0,-338r-50,0r0,798r50,0r0,-409v138,125,275,262,410,409r66,0v-140,-157,-283,-303,-428,-436","w":646},"L":{"d":"151,-50r0,-749r-50,0r0,798r402,0r0,-49r-352,0","w":540},"M":{"d":"715,-800r-49,0r-255,507r-261,-507r-50,0r0,799r50,0r0,-692r262,528r254,-525r0,689r49,0r0,-799","w":820},"N":{"d":"595,-801r0,706r-437,-706r-50,0r0,800r50,0r0,-705r437,705r49,0r1,-800r-50,0","w":748},"O":{"d":"750,-398v0,-217,-149,-410,-356,-410v-206,0,-339,193,-339,410v0,217,133,409,339,409v206,0,356,-194,356,-409xm700,-398v0,187,-126,362,-306,362v-180,0,-289,-170,-289,-362v0,-194,109,-362,289,-362v181,0,306,174,306,362","w":804},"P":{"d":"302,-275v167,0,309,-118,292,-305v-8,-89,-35,-129,-93,-177v-53,-43,-119,-56,-199,-56v-23,0,-89,4,-196,13r0,803r50,0r0,-286v64,5,113,8,146,8xm313,-765v142,0,249,96,227,251v-15,104,-125,191,-227,191v-19,0,-71,-3,-157,-10r0,-422v63,-7,115,-10,157,-10","w":656},"Q":{"d":"399,-807v-207,0,-341,192,-341,410v0,216,129,405,327,411v23,149,103,245,278,245v33,0,74,-4,123,-12r-9,-50v-186,41,-323,-20,-342,-185v185,-16,321,-202,321,-409v0,-215,-149,-410,-357,-410xm398,-34v-180,0,-290,-171,-290,-363v0,-192,110,-363,290,-363v180,0,307,175,307,363v0,189,-126,363,-307,363","w":818},"R":{"d":"312,-338v155,-16,237,-77,244,-233v10,-231,-210,-258,-447,-226r0,797r50,0r0,-342v33,3,60,5,80,6v111,104,220,215,329,333r66,0v-106,-118,-213,-230,-322,-335xm159,-753v183,-13,344,3,344,182v0,171,-163,196,-344,180r0,-362","w":686},"S":{"d":"268,10v132,0,224,-70,223,-209v0,-37,-18,-70,-46,-105v-28,-35,-240,-184,-286,-237v-19,-22,-29,-44,-29,-67v0,-93,55,-159,151,-159v74,0,125,25,173,66r0,-52v-52,-37,-98,-58,-173,-58v-124,0,-203,76,-203,199v0,46,22,88,61,128v11,11,222,165,244,189v35,38,55,72,55,106v0,101,-67,156,-158,153v-86,-2,-141,-32,-206,-72r0,54v46,35,112,64,194,64","w":560},"T":{"d":"512,-799r-466,0r0,50r208,0r0,749r50,0r0,-749r208,0r0,-50","w":558},"U":{"d":"350,-41v-145,0,-202,-79,-201,-231r0,-524r-56,0r0,529v0,186,86,279,257,279v171,0,256,-93,256,-279r0,-529r-56,0r0,524v1,153,-55,231,-200,231","w":702},"V":{"d":"338,1r53,0r280,-797r-53,0r-254,722r-260,-722r-53,0","w":718},"W":{"d":"953,-799r-199,703r-199,-703r-54,0r-199,703r-199,-703r-54,0r226,798r54,0r199,-702r199,702r54,0r226,-798r-54,0","w":1058},"X":{"d":"611,-799r-59,0r-223,358r-224,-358r-59,0r253,406r-245,392r59,0r216,-345r216,345r59,0r-246,-392","w":670},"Y":{"d":"341,-386r258,-413r-59,0r-224,358r-224,-358r-59,0r258,410r0,388r50,0r0,-385","w":634},"Z":{"d":"168,-50r369,-749r-454,0r0,50r374,0r-369,748r450,1r0,-50r-370,0","w":614},"[":{"d":"344,-917r0,-50r-211,0r1,1275r210,0r0,-50r-160,0r0,-1175r160,0","w":440},"\\":{"d":"297,3r-220,-917r51,0r220,917r-51,0","w":429},"]":{"d":"133,-917r0,-50r211,0r0,1275r-211,0r0,-50r161,0r0,-1175r-161,0","w":440},"^":{"d":"322,-702r-141,-94r-140,94r27,41r113,-76r114,76","w":370},"_":{"d":"595,0r-547,0r0,-50r547,0r0,50","w":642},"`":{"d":"63,-737r161,80r22,-43r-161,-80","w":312},"a":{"d":"289,21v88,0,175,-62,213,-121r0,100r50,0r0,-573v-172,-15,-289,-41,-391,50v-70,63,-108,141,-112,259v-4,146,100,285,240,285xm101,-262v3,-155,97,-277,244,-277v19,0,71,3,157,10r0,257v6,129,-98,239,-217,242v-97,3,-186,-109,-184,-232","w":622},"b":{"d":"557,-265v14,-204,-87,-322,-291,-322v-33,0,-82,3,-146,9r0,-337r-50,0r0,916v171,15,282,41,385,-50v59,-51,96,-123,102,-216xm507,-317v6,173,-88,284,-230,284v-19,0,-71,-3,-157,-10r0,-486v137,-10,241,-31,318,41v41,38,66,95,69,171","w":602},"c":{"d":"42,-323v-11,217,121,362,344,334v43,-5,87,-14,130,-27v-1,-9,-1,-36,-1,-49v-87,23,-103,34,-193,32v-150,-4,-235,-111,-229,-284v5,-142,75,-223,229,-222v35,0,85,3,152,10r0,-50v-61,-5,-108,-8,-141,-8v-190,-5,-283,102,-291,264","w":547},"d":{"d":"278,21v88,0,174,-62,214,-121r0,100r49,0r0,-915r-49,0r0,337v-155,-16,-257,-19,-342,55v-71,61,-108,141,-112,259v-4,146,100,285,240,285xm90,-262v2,-155,99,-284,244,-277v19,0,71,3,158,10v1,18,0,104,0,257v0,129,-99,239,-217,242v-99,3,-186,-110,-185,-232","w":616},"e":{"d":"320,-33v-142,-4,-220,-99,-229,-256r451,0v3,-156,-86,-299,-239,-299v-161,0,-279,143,-263,323v16,180,138,303,343,276v44,-5,87,-14,130,-27r0,-49v-87,23,-103,34,-193,32xm93,-339v10,-102,109,-195,213,-198v89,-2,173,94,183,198r-396,0","w":592},"f":{"d":"188,-623v11,-165,17,-235,136,-252r0,-45v-170,11,-188,147,-186,341r-84,0r0,50r84,0r0,530r50,0r0,-530r130,0r0,-50r-130,0r0,-44","w":372},"g":{"d":"506,7v8,177,-70,283,-225,286v-33,0,-74,-4,-124,-12r-9,49v125,23,241,13,310,-45v97,-82,98,-221,98,-399r0,-463v-173,-13,-290,-40,-393,51v-70,63,-110,140,-112,260v-3,147,99,286,241,286v88,0,174,-62,214,-121r0,108xm103,-264v2,-156,98,-285,245,-278v19,0,71,3,158,9v1,19,0,105,0,259v0,129,-99,241,-218,244v-98,3,-187,-110,-185,-234","w":644},"h":{"d":"600,-312v-4,-184,-68,-284,-241,-284v-95,0,-171,56,-214,121r0,-445r-50,0r0,921r50,0r0,-317v-3,-121,110,-244,240,-228v75,9,102,30,133,86v56,100,22,308,30,458r52,0r0,-312","w":663},"i":{"d":"98,-579r0,580r50,0r0,-580r-50,0xm148,-726r-50,0r0,50r50,0r0,-50","w":244},"j":{"d":"102,-726r0,50r50,0r0,-50r-50,0xm-34,340v153,-14,186,-117,186,-295r0,-624r-50,0v1,73,5,280,0,622v-3,161,-19,234,-136,251r0,46","w":260},"k":{"d":"219,-329r255,-250r-72,0r-249,245r0,-586r-50,0r0,921r50,0r0,-264r30,-31v94,93,180,191,259,294r63,0v-87,-117,-182,-226,-286,-329","w":532},"l":{"d":"99,2r50,0r0,-921r-50,0r0,921","w":260},"m":{"d":"965,-313v1,-184,-53,-278,-226,-286v-87,-4,-176,63,-210,130v-30,-81,-98,-130,-205,-130v-69,0,-128,28,-178,85r0,-65r-50,0r0,579r50,0r0,-418v21,-69,111,-130,182,-130v234,0,156,326,170,549r52,0r-1,-371v10,-102,103,-177,194,-178v234,-4,156,326,170,549r52,0r0,-314","w":1042},"n":{"d":"145,-316v-4,-120,111,-246,239,-227v75,11,102,30,133,86v55,100,22,307,30,457r52,0v-7,-163,25,-380,-36,-486v-42,-74,-94,-109,-205,-109v-95,0,-171,58,-213,120r0,-103r-50,0r0,578r50,0r0,-316","w":673},"o":{"d":"580,-288v0,-153,-122,-302,-266,-302v-143,0,-266,150,-266,302v0,176,100,302,266,302v173,0,266,-122,266,-302xm530,-288v0,142,-82,252,-215,252v-136,0,-215,-107,-215,-252v0,-125,98,-252,215,-252v117,0,215,127,215,252"},"p":{"d":"288,14v195,-3,300,-137,293,-339v-6,-158,-111,-265,-293,-265v-23,0,-89,5,-196,14r0,919r50,0r0,-338v64,6,113,9,146,9xm530,-318v5,169,-88,287,-230,284v-19,0,-72,-3,-158,-10r0,-487v136,-12,242,-32,319,40v41,38,67,96,69,173","w":631},"q":{"d":"285,20v89,0,174,-61,214,-121r0,444r50,0r0,-919v-172,-15,-290,-41,-393,50v-71,63,-109,142,-112,260v-4,147,99,286,241,286xm97,-264v0,-157,97,-284,244,-278v19,0,72,4,158,11r0,257v6,128,-99,240,-217,244v-98,3,-185,-110,-185,-234","w":631},"r":{"d":"132,-272v10,-123,62,-225,163,-256r0,-51v-74,20,-127,68,-163,129r0,-128r-50,0r0,578r50,0r0,-272","w":336},"s":{"d":"185,21v135,8,214,-150,130,-251v-25,-48,-232,-138,-226,-208v5,-64,40,-105,103,-102v73,4,103,19,144,61r5,-47v-39,-40,-92,-60,-159,-60v-90,-1,-145,49,-145,142v0,43,22,84,67,120v61,48,192,100,192,186v0,74,-44,116,-110,116v-53,0,-101,-20,-145,-59r-2,55v34,26,86,43,146,47","w":391},"t":{"d":"316,-36v-114,3,-127,-16,-142,-108v-1,-13,-2,-58,-3,-135v-1,-83,-1,-166,0,-249r129,0r0,-50r-129,0r0,-97r-50,0r0,97r-84,0r0,50r84,0v-1,84,-1,168,0,252v1,85,3,137,5,156v16,104,60,133,190,127r0,-43","w":343},"u":{"d":"67,-264v0,182,52,283,225,283v68,0,127,-28,178,-84r0,65r49,0r0,-577r-49,0r0,416v-22,70,-109,130,-182,130v-233,0,-156,-324,-169,-546r-52,0r0,313","w":610},"v":{"d":"237,0r52,0r203,-577r-53,0r-176,502r-182,-502r-53,0","w":519},"w":{"d":"849,-577r-176,502r-183,-502r-52,0r-177,502r-182,-502r-53,0r209,577r53,0r176,-503r183,503r52,0r203,-577r-53,0","w":924},"x":{"d":"545,0r-226,-291r222,-286r-64,0r-189,245r-191,-245r-63,0r222,286r-226,291r63,0r195,-250r194,250r63,0","w":576},"y":{"d":"56,348v82,-11,130,-47,154,-115r284,-810r-52,0r-177,502r-182,-502r-53,0r209,577r-79,226v-14,37,-56,74,-106,77","w":524},"z":{"d":"478,-577r-436,1r0,49r344,0r-344,527r430,0r0,-50r-338,0","w":513},"{":{"d":"147,-354v6,248,49,455,110,662r211,0r0,-50r-175,0v-123,-476,-134,-700,-1,-1175r176,0r0,-50r-211,0v-59,181,-96,369,-109,563r-111,0r0,50r110,0","w":530},"|":{"d":"169,308r-50,0r0,-1275r50,0r0,1275","w":280},"}":{"d":"358,-354v-6,250,-49,454,-110,662r-211,0r0,-50r175,0v122,-476,133,-700,1,-1175r-176,0r0,-50r211,0v59,181,95,369,109,563r111,0r0,50r-110,0","w":530},"\u20ac":{"d":"203,-476v18,-176,113,-284,289,-284v35,0,87,3,155,10r0,-50v-150,-15,-273,-13,-356,46v-92,67,-126,138,-142,278r-104,0r0,50r100,0r2,86r-102,0r0,50r107,0v17,129,54,192,139,255v82,61,208,63,356,46r0,-51v-254,43,-408,-30,-441,-250r326,0r0,-50r-332,0r-2,-86r334,0r0,-50r-329,0","w":699},"\u00a1":{"d":"153,1r0,-652r-50,0r0,652r50,0xm163,-739r-70,0r0,-60r70,0r0,60","w":262},"\u00a9":{"d":"3411,-735v4,-31,-26,-53,-57,-53v-34,0,-53,17,-56,52r-26,-2v11,-46,39,-69,84,-69v43,-1,80,29,79,72v-2,57,-99,137,-139,182r141,-1r0,20r-168,0r0,-19v42,-51,134,-116,142,-182xm3617,-807v69,0,122,72,122,140v0,83,-42,139,-122,139v-78,0,-123,-59,-123,-139v0,-69,53,-140,123,-140xm3617,-551v63,0,99,-51,99,-116v0,-56,-42,-117,-99,-117v-57,0,-100,61,-100,117v0,66,37,116,100,116xm3914,-807v70,0,123,71,123,140v0,82,-43,139,-123,139v-77,0,-123,-60,-123,-139v0,-69,53,-140,123,-140xm3914,-551v63,0,100,-51,100,-116v0,-57,-45,-117,-100,-117v-56,0,-99,62,-99,117v0,66,36,116,99,116xm4283,-557r-39,0r0,78r-22,0r0,-78r-141,0r0,-25r127,-219r36,0r0,226r39,0r0,18xm4221,-576r0,-208v-37,73,-82,138,-121,208r121,0xm1659,-373r-96,0r0,346r-23,0r0,-346r-96,0r0,-24r215,0r0,24xm1778,-42v37,0,75,-29,84,-60r0,-192r23,0r0,267r-23,0r0,-30v-23,25,-51,38,-82,38v-132,0,-100,-152,-104,-275r24,0r0,145v0,71,26,107,78,107xm2194,-178v4,117,-73,178,-202,153r0,156r-23,0r0,-425r104,-6v72,-1,118,52,121,122xm2170,-147v10,-83,-31,-137,-105,-131v-28,1,-52,3,-73,5r0,225v101,14,165,6,178,-99xm2802,-397r-105,369r-25,0r-92,-324r-91,324r-25,0r-105,-369r25,0r92,325r92,-325r25,0r92,325r92,-325r25,0xm2824,-149v0,-82,57,-153,142,-150r91,7r0,264r-23,0r0,-46v-18,28,-58,56,-99,56v-65,0,-111,-63,-111,-131xm2933,-41v58,0,101,-56,101,-112r0,-119v-64,-4,-124,-13,-157,34v-18,26,-29,54,-29,89v0,58,40,108,85,108xm3254,-302v77,2,111,48,111,131r0,144r-24,0v-4,-107,26,-252,-85,-252v-53,0,-100,53,-100,106r0,146r-23,0r0,-267r23,0r0,47v25,-37,58,-55,98,-55xm3417,-149v0,-86,57,-150,142,-149v16,0,39,1,68,4r0,-156r23,0r0,423r-23,0r0,-47v-19,29,-57,56,-99,56v-65,0,-111,-63,-111,-131xm3527,-41v57,0,100,-56,100,-112r0,-119v-61,-4,-126,-15,-156,34v-56,60,-25,197,56,197xm3703,-150v-16,-126,144,-204,210,-98v16,26,23,55,22,87r-209,0v5,111,96,140,195,104r0,22v-31,9,-59,14,-84,14v-81,2,-124,-54,-134,-129xm3910,-184v-6,-79,-93,-123,-149,-64v-18,19,-30,39,-34,64r183,0xm4093,-271v-81,21,-78,136,-75,244r-23,0r0,-268r23,0r0,60v18,-31,43,-51,75,-60r0,24xm4268,-249v-29,-34,-113,-45,-114,19v0,15,15,32,46,51v49,31,74,59,74,86v0,75,-93,95,-143,54r1,-26v35,37,118,43,118,-26v0,-58,-116,-70,-120,-141v-5,-79,103,-81,140,-38xm436,-534r-141,-433r173,0r67,219v1,-4,23,-77,66,-219r183,0r71,219v1,-6,22,-79,62,-219r171,0r-141,433r-195,0r-61,-185r-60,185r-195,0xm796,110v1,-38,0,-74,-12,-99r0,108xm822,-254r-13,-9r0,198r13,9r0,-198xm834,-277r13,39r0,-224r-13,9r0,176xm734,156r12,-9r0,-456r-12,-9r0,474xm771,-291r-12,-9r0,438r12,-10r0,-419xm809,-435v-1,45,-2,90,13,119r0,-128xm796,-272r-12,-10r0,252r12,-39r0,-203xm935,10r12,-9r-1,-535r-11,8r0,536xm847,-236r-13,-9r0,199r13,9r0,-199xm520,-473r-13,-10r0,469r13,-10r0,-449xm545,-243r-9,7r9,-29r0,-190r-13,-9r0,431r13,-10r0,-200xm482,5r13,-10r0,-487r-13,-9r0,506xm796,-425v-14,4,-2,19,0,30r0,-30xm872,-480r-13,9r0,444r13,9r0,-462xm897,-498r-13,9r0,481r13,9r0,-499xm997,-497r-12,-9r0,479r12,-9r0,-461xm1048,-72v0,-44,3,-91,-13,-119r0,128xm1035,-470r0,193r13,10r0,-193xm1098,-424r-13,-9r0,196r13,10r0,-197xm1023,-230r-13,-39r0,224r13,-9r0,-176xm1073,-442r-13,-9r0,194r13,10r0,-195xm1023,-479r-13,-9r0,191v2,1,6,5,13,10r0,-192xm570,-437r-12,-9r0,142v16,-33,12,-85,12,-133xm960,-8r12,-10r0,-497r-12,-9r0,516xm1299,-277r-12,-10r0,41r12,-9r0,-22xm1224,-332r-13,-9r0,150r13,-9r0,-132xm1249,-314r-13,-9r0,114r13,-9r0,-96xm1123,-405r-12,-10r0,198r12,10r0,-198xm1274,-296r-13,-9r0,78r13,-9r0,-60xm1148,-387r-12,-9r0,199r12,10r0,-200xm1173,-369r-12,-9r0,200r12,10r0,-201xm1199,-351r-13,-9r0,187r13,-9r0,-169xm369,-257r-13,39r0,162r13,9r0,-210xm570,-261r-12,9r0,200r12,-10r0,-199xm218,-375r-12,9r0,201r12,-9r0,-201xm193,-357r-13,9r0,164r13,9r0,-182xm92,-284v-14,4,-17,31,0,36r0,-36xm168,-338r-13,9r0,127r13,9r0,-145xm570,99r0,-1r0,1xm118,-302r-13,9r0,54r13,9r0,-72xm143,-320r-13,9r0,90r13,10r0,-109xm470,-510r-13,-9r0,536v5,5,9,0,13,-3r0,-524xm1060,-81v15,-6,3,-21,0,-33r0,33xm1312,-268v-1,4,1,4,3,2xm922,-517r-13,9r0,519v4,2,9,9,13,8r0,-536xm696,-346v-5,-5,-9,-1,-13,3r0,524v4,3,9,7,13,2r0,-529xm671,-334r-13,9r0,488r13,9r0,-506xm721,-327r-13,-10r0,511r13,-9r0,-492xm809,101v7,-2,1,-9,0,-15r0,15xm319,-102v-1,7,-9,16,0,18r0,-18xm646,-316r-13,9r0,451r13,9r0,-469xm583,-383r11,-36r-11,-9r0,45xm268,-412r-12,10r0,198r12,-10r0,-198xm432,-2r12,9r0,-535v-4,-3,-8,-8,-12,-3r0,529xm620,-298r-12,10r0,414r12,9r0,-433xm595,-42r0,-237r-12,9r0,198r2,-1xm595,117r0,-94v-10,23,-14,50,-12,85xm369,-485r-13,9r0,193r13,-10r0,-192xm419,-521r-12,9r0,492r12,9r0,-510xm231,-184r12,-10r0,-199r-12,9r0,200xm394,-503r-12,9r0,190v1,-1,2,-1,3,-2v-1,3,-2,6,-3,10r0,258r12,9r0,-474xm344,-65r0,-115v-13,26,-15,64,-13,105xm294,-430r-13,9r0,197r13,-10r0,-196xm319,-448r-13,9r0,195r13,-9r0,-195xm344,-467r-13,10r0,194r13,-10r0,-194","w":4411},"\u00b0":{"d":"276,-691v0,-56,-48,-104,-104,-104v-56,0,-104,48,-104,104v0,56,48,104,104,104v56,0,104,-48,104,-104xm233,-691v0,33,-28,61,-61,61v-33,0,-61,-28,-61,-61v0,-32,29,-60,61,-60v32,0,61,28,61,60","w":344},"\u00b1":{"d":"404,-291r-352,0r0,-49r352,0r0,49xm253,-492r0,352r-50,0r0,-352r50,0xm352,1r-262,0r0,-49r262,0r0,49","w":459},"\u00d2":{},"\u00d3":{},"\u00d6":{},"\u00d7":{"d":"370,-422r-249,248r-35,-35r249,-248xm121,-457r249,248r-35,35r-249,-248","w":459},"\u00e0":{"d":"298,20v88,0,174,-61,213,-121r0,101r50,0r0,-574v-172,-13,-289,-41,-391,50v-71,63,-108,141,-112,260v-3,145,100,284,240,284xm110,-262v2,-156,97,-277,244,-277v19,0,71,3,157,10r0,256v5,128,-99,239,-217,243v-97,3,-186,-110,-184,-232xm237,-737r161,80r22,-43r-161,-80","w":640},"\u00e1":{"d":"298,20v88,0,174,-61,213,-121r0,101r50,0r0,-574v-172,-13,-289,-41,-391,50v-71,63,-108,141,-112,260v-3,145,100,284,240,284xm110,-262v2,-156,97,-277,244,-277v19,0,71,3,157,10r0,256v5,128,-99,239,-217,243v-97,3,-186,-110,-184,-232xm453,-737r-161,80r-22,-43r161,-80","w":640},"\u00e2":{"d":"298,20v88,0,174,-61,213,-121r0,101r50,0r0,-574v-172,-13,-289,-41,-391,50v-71,63,-108,141,-112,260v-3,145,100,284,240,284xm110,-262v2,-156,97,-277,244,-277v19,0,71,3,157,10r0,256v5,128,-99,239,-217,243v-97,3,-186,-110,-184,-232xm472,-702r-141,-94r-140,94r27,41r113,-76r114,76","w":640},"\u00e4":{"d":"298,20v88,0,174,-61,213,-121r0,101r50,0r0,-574v-172,-13,-289,-41,-391,50v-71,63,-108,141,-112,260v-3,145,100,284,240,284xm110,-262v2,-156,97,-277,244,-277v19,0,71,3,157,10r0,256v5,128,-99,239,-217,243v-97,3,-186,-110,-184,-232xm248,-716r-50,0r0,50r50,0r0,-50xm468,-716r-50,0r0,50r50,0r0,-50","w":640},"\u00e8":{"d":"320,-33v-142,-4,-220,-99,-229,-256r451,0v3,-156,-86,-299,-239,-299v-161,0,-279,143,-263,323v16,180,138,303,343,276v44,-5,87,-14,130,-27r0,-49v-87,23,-103,34,-193,32xm93,-339v10,-102,109,-195,213,-198v89,-2,173,94,183,198r-396,0xm144,-737r161,80r22,-43r-161,-80","w":592},"\u00e9":{"d":"320,-33v-142,-4,-220,-99,-229,-256r451,0v3,-156,-86,-299,-239,-299v-161,0,-279,143,-263,323v16,180,138,303,343,276v44,-5,87,-14,130,-27r0,-49v-87,23,-103,34,-193,32xm93,-339v10,-102,109,-195,213,-198v89,-2,173,94,183,198r-396,0xm427,-737r-161,80r-22,-43r161,-80","w":592},"\u00ea":{"d":"320,-33v-142,-4,-220,-99,-229,-256r451,0v3,-156,-86,-299,-239,-299v-161,0,-279,143,-263,323v16,180,138,303,343,276v44,-5,87,-14,130,-27r0,-49v-87,23,-103,34,-193,32xm93,-339v10,-102,109,-195,213,-198v89,-2,173,94,183,198r-396,0xm432,-702r-141,-94r-140,94r27,41r113,-76r114,76","w":592},"\u00eb":{"d":"320,-33v-142,-4,-220,-99,-229,-256r451,0v3,-156,-86,-299,-239,-299v-161,0,-279,143,-263,323v16,180,138,303,343,276v44,-5,87,-14,130,-27r0,-49v-87,23,-103,34,-193,32xm93,-339v10,-102,109,-195,213,-198v89,-2,173,94,183,198r-396,0xm198,-726r-50,0r0,50r50,0r0,-50xm418,-726r-50,0r0,50r50,0r0,-50","w":592},"\u00ec":{"d":"98,-579r0,580r50,0r0,-580r-50,0xm38,-737r161,80r22,-43r-161,-80","w":244},"\u00ed":{"d":"98,-579r0,580r50,0r0,-580r-50,0xm210,-737r-161,80r-22,-43r161,-80","w":244},"\u00ee":{"d":"98,-579r0,580r50,0r0,-580r-50,0xm262,-702r-141,-94r-140,94r27,41r113,-76r114,76","w":244},"\u00ef":{"d":"98,-579r0,580r50,0r0,-580r-50,0xm88,-726r-50,0r0,50r50,0r0,-50xm208,-726r-50,0r0,50r50,0r0,-50","w":244},"\u00f2":{"d":"580,-288v0,-153,-122,-302,-266,-302v-143,0,-266,150,-266,302v0,176,100,302,266,302v173,0,266,-122,266,-302xm530,-288v0,142,-82,252,-215,252v-136,0,-215,-107,-215,-252v0,-125,98,-252,215,-252v117,0,215,127,215,252xm220,-737r161,80r22,-43r-161,-80"},"\u00f3":{"d":"580,-288v0,-153,-122,-302,-266,-302v-143,0,-266,150,-266,302v0,176,100,302,266,302v173,0,266,-122,266,-302xm530,-288v0,142,-82,252,-215,252v-136,0,-215,-107,-215,-252v0,-125,98,-252,215,-252v117,0,215,127,215,252xm453,-737r-161,80r-22,-43r161,-80"},"\u00f4":{"d":"580,-288v0,-153,-122,-302,-266,-302v-143,0,-266,150,-266,302v0,176,100,302,266,302v173,0,266,-122,266,-302xm530,-288v0,142,-82,252,-215,252v-136,0,-215,-107,-215,-252v0,-125,98,-252,215,-252v117,0,215,127,215,252xm442,-702r-141,-94r-140,94r27,41r113,-76r114,76"},"\u00f6":{"d":"580,-288v0,-153,-122,-302,-266,-302v-143,0,-266,150,-266,302v0,176,100,302,266,302v173,0,266,-122,266,-302xm530,-288v0,142,-82,252,-215,252v-136,0,-215,-107,-215,-252v0,-125,98,-252,215,-252v117,0,215,127,215,252xm220,-716r-50,0r0,50r50,0r0,-50xm440,-716r-50,0r0,50r50,0r0,-50"},"\u00f9":{"d":"67,-264v0,182,52,283,225,283v68,0,127,-28,178,-84r0,65r49,0r0,-577r-49,0r0,416v-22,70,-109,130,-182,130v-233,0,-156,-324,-169,-546r-52,0r0,313xm190,-737r161,80r22,-43r-161,-80","w":610},"\u00fa":{"d":"67,-264v0,182,52,283,225,283v68,0,127,-28,178,-84r0,65r49,0r0,-577r-49,0r0,416v-22,70,-109,130,-182,130v-233,0,-156,-324,-169,-546r-52,0r0,313xm403,-737r-161,80r-22,-43r161,-80","w":610},"\u00fb":{"d":"67,-264v0,182,52,283,225,283v68,0,127,-28,178,-84r0,65r49,0r0,-577r-49,0r0,416v-22,70,-109,130,-182,130v-233,0,-156,-324,-169,-546r-52,0r0,313xm432,-702r-141,-94r-140,94r27,41r113,-76r114,76","w":610},"\u00fc":{"d":"67,-264v0,182,52,283,225,283v68,0,127,-28,178,-84r0,65r49,0r0,-577r-49,0r0,416v-22,70,-109,130,-182,130v-233,0,-156,-324,-169,-546r-52,0r0,313xm200,-716r-50,0r0,50r50,0r0,-50xm420,-716r-50,0r0,50r50,0r0,-50","w":610},"\u00a0":{"w":467}}});
